-2.245585923047728125e-02
1.672287945481579496e-01
-2.135855970851282259e-01
-1.215245789903346592e-02
5.243580919661740003e-01
-6.012317010952042962e-01
1.219057030655591733e-01
8.739774649761974379e-01
-5.423446843914992571e-02
-4.499612115712439686e-02
7.261925829304423374e-02
-8.151788423910594217e-02
-2.714531046849939094e-02
1.417979292741934905e-01
-1.400611711631896683e-01
-1.561552774476703542e-01
2.794381293270126188e-02
-6.435920648145228296e-02
4.472971828741596073e-02
1.432003591833990938e-02
-3.322572700368041365e-02
1.427782607344694338e-02
3.492100725457863986e-02
-8.211618602345153312e-03
-1.077642673309876786e-02
1.197529310464289648e-02
-2.086286437269303101e-02
1.237227755561044751e-03
-2.171895296339325723e-02
-1.845345072645815376e-02
7.947551915405321604e-03
7.624428873991012656e-02
1.035934590914305842e-05
7.957322435608871203e-06
-1.680662081558759180e-05
1.552977804686328511e-05
7.042864364620315953e-06
-1.484965360672510504e-05
2.922378605134043350e-05
2.660041685910441434e-05
-6.061408543962394646e-02
5.154422764118070377e-02
-4.835609399639179129e-02
4.980124865850023980e-02
-4.099070773434630027e-02
-9.150518077433762373e-03
2.119004961259988995e-02
1.267150316041462665e-01
-5.310460655925108853e-04
1.009317430791356607e-03
1.625834277169391218e-04
-1.030129906901752768e-03
-3.121687439890941107e-04
1.070955182286087437e-03
-1.911932311171836429e-03
1.751514736181083998e-03
7.654547588130174163e-03
1.007944290932864806e-04
1.732266016215250684e-02
-1.967791082446712636e-05
-1.453768107284592048e-06
-4.051528169501938947e-05
-1.160740467314745894e+00
3.985131341273012717e-01
-2.455520525782383778e+00
-2.730031176154124606e-01
4.794140548261368373e+00
3.716000173643080107e+00
2.340205748744255132e-01
-1.039202472109995412e+01
6.787648442262712856e-03
3.856795136108292499e-01
6.355749979454003995e-01
-1.537712873602408437e-01
-1.705415469343180002e+00
-2.123922710505497857e+00
-5.802198339434879726e-01
6.758472660719847980e+00
-4.846591285667667393e-05
6.757634745085949746e-05
-7.378959554876773907e-05
7.489330564454388384e-05
-2.284289063925193375e-05
-3.485900394506469269e-06
-6.178590323441257581e-05
-7.016299628803679411e-05
-7.291754126454386142e-02
-8.867729622181845517e-02
-1.967914195648957643e-01
9.633327966522808872e-02
2.086311884845411246e-01
-5.519111478080105382e-01
1.217927723682155072e-01
2.330078243148268613e-01
-1.504427537004172921e-01
1.920645546177271457e-01
-6.168086973781862492e-02
-5.254265229143531557e-04
-1.193414266162907966e-03
3.543836905703723686e-03
-1.217752249094802841e-03
-1.220628635656598182e-03
6.208257142343576174e-04
-1.111193538612512133e-03
2.253283113890502953e-04
1.608751490468293410e-01
-2.030216148622150663e-01
3.246966704394267655e-02
-1.856718108163004366e-01
4.799944616730054681e-01
-4.239777760282053554e-01
-5.763321833678784756e-02
7.076492222616908023e-01
-1.539888701823718606e-03
7.143833082283848612e-03
2.587661536381925635e-04
8.225401667823329863e-03
-2.893434028177062356e-02
1.477559958790057582e-02
1.669600299010630742e-02
-4.245425370244068630e-02
-3.888421803091734130e+00
