1.620107976296513985e-01
-5.010072847015625830e-02
2.015889482469377936e-01
5.152836000306743047e-01
5.094762404382405241e-04
-9.757741036231424442e-03
3.149084898308045916e-02
7.044059657675856567e-03
-3.649618374219799899e-02
-1.914436505572861963e-02
-5.501392451801589978e-04
8.646662902716459320e-02
-3.093465360462089447e-02
-1.186673604065918708e-02
1.331180063399882429e-02
1.429137112182657099e-01
-9.056807553440571201e-04
1.286510693442877162e-03
-1.738789161486384294e-03
1.538984528738213120e-03
2.704414834738551487e+00
4.136149627070397017e+00
-3.868103426749641693e-01
-9.406956702247594393e+00
-1.065139706958921462e+00
-2.299341246932932403e+00
-7.582537569675537048e-01
6.537989115427206066e+00
-1.248158515259473189e-05
4.359298097361685720e-06
-8.394345321674490101e-05
1.224750347091074776e-06
5.391355927063483378e-02
-1.281486058764455815e-01
1.851335370147626502e-01
-6.591168004373298972e-02
-3.063146475337230612e-04
5.364030139505260308e-04
-1.078711242666230419e-03
3.112578666241705427e-04
2.911729919464127736e-01
-3.209572662806431942e-01
-8.484545459769260445e-02
8.336991714965588107e-01
-1.600021937709383835e-02
1.153454732406189454e-02
1.632025453674024185e-02
-4.877563054048383862e-02
-4.265087874113504540e-03
-6.883279942044850941e-03
-9.392868183752511868e-03
-7.971262139341739328e-03
-2.121115261121806483e-01
2.516896767483878250e-01
3.136946517788934963e-01
-3.718728753014326038e+00
